digraph Tree {
node [shape=box, style="filled", color="black", fontname="Roboto Condensed"] ;
edge [fontname="Roboto Condensed"] ;
rankdir=LR ;
0 [label="poutcome_success <= 0.5\nsquared_error = 0.027\nsamples = 36168\nvalue = 0.138", fillcolor="#fcefe6"] ;
1 [label="age <= 1.845\nsquared_error = 0.016\nsamples = 34963\nvalue = 0.119", fillcolor="#fcf2eb"] ;
0 -> 1 [labeldistance=2.5, labelangle=-45, headlabel="True"] ;
2 [label="month <= 9.5\nsquared_error = 0.014\nsamples = 34152\nvalue = 0.112", fillcolor="#fdf3ed"] ;
1 -> 2 ;
3 [label="contact_unknown <= 0.5\nsquared_error = 0.011\nsamples = 33504\nvalue = 0.106", fillcolor="#fdf4ee"] ;
2 -> 3 ;
4 [label="squared_error = 0.014\nsamples = 23219\nvalue = 0.131", fillcolor="#fcf0e8"] ;
3 -> 4 ;
5 [label="squared_error = 0.002\nsamples = 10285\nvalue = 0.052", fillcolor="#fffefd"] ;
3 -> 5 ;
6 [label="day <= 19.5\nsquared_error = 0.032\nsamples = 648\nvalue = 0.413", fillcolor="#f2c09c"] ;
2 -> 6 ;
7 [label="squared_error = 0.028\nsamples = 437\nvalue = 0.363", fillcolor="#f4c9a9"] ;
6 -> 7 ;
8 [label="squared_error = 0.025\nsamples = 211\nvalue = 0.517", fillcolor="#eeae80"] ;
6 -> 8 ;
9 [label="contact_unknown <= 0.5\nsquared_error = 0.027\nsamples = 811\nvalue = 0.42", fillcolor="#f2bf9a"] ;
1 -> 9 ;
10 [label="day <= 7.5\nsquared_error = 0.025\nsamples = 796\nvalue = 0.427", fillcolor="#f1be98"] ;
9 -> 10 ;
11 [label="squared_error = 0.015\nsamples = 217\nvalue = 0.368", fillcolor="#f4c8a8"] ;
10 -> 11 ;
12 [label="squared_error = 0.027\nsamples = 579\nvalue = 0.449", fillcolor="#f1ba92"] ;
10 -> 12 ;
13 [label="day <= 2.5\nsquared_error = 0.0\nsamples = 15\nvalue = 0.066", fillcolor="#fefbf9"] ;
9 -> 13 ;
14 [label="squared_error = 0.0\nsamples = 3\nvalue = 0.044", fillcolor="#ffffff"] ;
13 -> 14 ;
15 [label="squared_error = 0.0\nsamples = 12\nvalue = 0.071", fillcolor="#fefaf8"] ;
13 -> 15 ;
16 [label="housing <= 0.5\nsquared_error = 0.047\nsamples = 1205\nvalue = 0.682", fillcolor="#e89253"] ;
0 -> 16 [labeldistance=2.5, labelangle=45, headlabel="False"] ;
17 [label="campaign <= 1.672\nsquared_error = 0.029\nsamples = 832\nvalue = 0.737", fillcolor="#e78845"] ;
16 -> 17 ;
18 [label="pdays <= 1.384\nsquared_error = 0.027\nsamples = 825\nvalue = 0.74", fillcolor="#e68844"] ;
17 -> 18 ;
19 [label="squared_error = 0.031\nsamples = 471\nvalue = 0.71", fillcolor="#e88d4c"] ;
18 -> 19 ;
20 [label="squared_error = 0.02\nsamples = 354\nvalue = 0.781", fillcolor="#e58139"] ;
18 -> 20 ;
21 [label="age <= -1.213\nsquared_error = 0.03\nsamples = 7\nvalue = 0.361", fillcolor="#f4c9aa"] ;
17 -> 21 ;
22 [label="squared_error = 0.0\nsamples = 1\nvalue = 0.749", fillcolor="#e68642"] ;
21 -> 22 ;
23 [label="squared_error = 0.005\nsamples = 6\nvalue = 0.296", fillcolor="#f6d4bb"] ;
21 -> 23 ;
24 [label="pdays <= 1.485\nsquared_error = 0.067\nsamples = 373\nvalue = 0.561", fillcolor="#eda774"] ;
16 -> 24 ;
25 [label="pdays <= 0.428\nsquared_error = 0.067\nsamples = 231\nvalue = 0.621", fillcolor="#eb9c64"] ;
24 -> 25 ;
26 [label="squared_error = 0.028\nsamples = 33\nvalue = 0.396", fillcolor="#f3c3a0"] ;
25 -> 26 ;
27 [label="squared_error = 0.063\nsamples = 198\nvalue = 0.659", fillcolor="#e9965a"] ;
25 -> 27 ;
28 [label="pdays <= 3.356\nsquared_error = 0.053\nsamples = 142\nvalue = 0.462", fillcolor="#f0b88f"] ;
24 -> 28 ;
29 [label="squared_error = 0.04\nsamples = 114\nvalue = 0.402", fillcolor="#f2c29f"] ;
28 -> 29 ;
30 [label="squared_error = 0.032\nsamples = 28\nvalue = 0.703", fillcolor="#e88e4e"] ;
28 -> 30 ;
}